0.32716894 0.050365124 -0.3335434 0.117724925 -0.35016978 -0.4620228 -0.49897778 0.27979353 0.18897405 -0.21660225 -0.32259354 -0.12464823 0.0053140363 0.121876664 -0.36389557 -0.49454835 -0.23879296 -0.24283254 -0.33697808 -0.2589796 -0.05097538 0.34810826 -0.02365133 -0.29825318 -0.021025512 -0.29644963 -0.12369877 -0.045851022 -0.30823496 0.23769055 -0.32260182 0.056775607 0.20548682 0.3375699 -0.25445643 0.26712972 0.14637025 0.32117265 -0.1289789 -0.21186395 -0.15411736 -0.3942547 0.7111597 0.39303324 0.57262146 0.01893684 0.19094388 -0.023831021 0.0074232067 -0.45717445 0.027253082 -0.11557843 0.47618985 0.33187142 0.054919858 0.30876538 0.08467795 -0.044033267 -0.07867451 0.0023336671 0.07287069 0.02181274 0.046101 -0.048652526 1.2492653 0.5185133 0.5759824 0.686234 -1.0297635 -0.0139867235 0.1508163 -0.25959378 0.055804558 0.36382625 -0.70812917 0.09912611 -0.64736027 0.19097692 0.24019586 -1.0294675 0.011175163 0.042684987 0.628633 -0.37599948 -0.117036365 -0.5401422 -0.60456157 -0.14399457 -0.17785943 -0.112492315 -0.048492275 -0.7409589 0.5760966 -0.12306791 -0.55027264 0.22920309 0.90218943 -0.148123 0.07696724 0.007602706 0.5556664 0.6532634 -0.28794286 0.17302866 0.44745657 -0.60214585 0.20581485 0.33158424 0.27664205 0.4149201 0.7135812 0.37515503 0.12438573 0.10909707 0.69771403 0.32035047 0.45352042 -0.13522741 0.14571866 0.5299277 -0.26926252 0.109994926 -0.24201503 -0.21028367 -0.021472098 -0.33933076 -0.38795072 0.098191045 -0.61774707 -0.8346395 -0.8749709 0.104450814 -0.25188217 0.17292953 0.04576229 0.013043612 0.29699773 0.4116069 -0.0630654 -0.48570928 0.3910359 -0.015395142 -0.01153145 -0.110499926 0.44543257 -0.03399089 0.10555747 0.4560097 -0.39248028 0.039685115 -0.27456403 -0.111815244 0.26080775 -0.381799 0.07378775 0.2663857 0.69223505 0.24924703 0.5963066 0.35926852 -0.33265406 -0.11284935 0.20263271 0.330601 -0.17058416 0.040332623 1.0723953 0.88991266 0.04551172 0.7901376 -0.3821071 0.88985586 -0.073894046 0.36121178 -0.35149407 -0.537359 0.8538507 0.76037353 -0.062274624 0.23527896 -0.43220705 -1.2291763 -0.07538411 0.11584917 0.31656173 0.7095751 0.56995875 -0.5006784 0.13535266 0.055338748 -0.12695456 0.69640064 -0.34925833 0.66260636 0.74416155 0.42742443 0.17648414 1.0004487 0.7708657 0.10295363 -0.07223225 -0.34039694 0.16173588 0.5557687 -0.6764067 0.47294545 0.18373056 -0.121553965 -0.052979425 -0.16082889 -0.68726015 0.5680466 0.35412544 0.7514894 -0.01033052 0.12939045 -0.5339769 -0.31301093 -0.12127178 -0.23219502 0.22850594 -0.014164428 0.22854087 0.67953175 0.40725377 -0.36439374 0.21358505 0.10298708 0.048407465 0.17262086 -0.80112326 -0.4877882 0.45182714 0.73936117 0.42308438 0.07638963 0.276739 -0.028084682 0.11754455 0.62742233 0.63928276 0.394634 -0.40090263 -0.10154534 0.30694678 -0.027035952 0.25324368 -0.62683773 0.009564246 0.15352555 -0.019851962 -9.874964e-05 0.590395 0.41649696 -0.18825012 -0.22341782 -0.33830768 -0.18446995 -0.039661095 0.32245162 -0.1855091 -0.41806388 -0.0071001556 -0.38921028 0.41791856 0.32947445 0.20616232 -0.1234686 -0.07881944 0.078775816 -0.12347216 -0.044375442 -0.14113487 0.062808365 0.20518352 0.02188562 0.07501927 -0.21048388 -0.16565059 0.08104068 -0.22825705 -0.44045553 -0.19628315 0.28289586 -0.08791699 0.14503133 -0.005251478 -0.42125267 0.27377504 0.36595115 -0.09266745 0.020810211 -0.19527677 -0.15347047 -0.23658022 -0.23807536 -0.06270358 0.09858628 -0.12035007 0.107493445 -0.10645628 0.11280639 0.16632049 0.25454286 -0.025361942 0.016964803 0.0030377214 -0.111919895 -0.094406836 0.2787149 0.0062969117 -0.17900738 -0.266535 0.14059703 0.050836682 0.10731241 0.1512328 0.19387081 0.1290672 -0.010414603 0.25748542 0.08834674 -0.027709102 -0.21498647 0.100114174 -0.02598833 -0.10574051 -0.2765655 -0.23558587 -0.1470363 -0.110229306 0.20241512 0.017037092 0.0018977323 0.07958503 0.0702293 0.05364702 -0.35910913 -0.10697868 0.2724003 -0.15887482 -0.11913329 0.07364384 -0.25312975 0.18044718 -0.00552079 0.31286433 0.2243629 0.09419143 -0.07265863 -0.023992876 -0.15003406 0.14116788 -0.13648 -0.2087274 -0.030577438 -0.1716796 0.21546328 -0.09474219 0.1426265 -0.1620664 0.17397583 0.19891585 -0.11650574 0.22021492 0.11129616 0.08152874 0.003323298 0.29593164 0.15843828 -0.1595861 -0.036009118 0.32387394 0.14239115 0.29945323 -0.10028144 0.30825043 0.092045166 -0.3728761 -0.056257244 -0.2602622 0.08934631 -0.15772055 -0.16492866 -0.4603984 -0.2661085 0.11737812 0.26568475 0.09249375 0.20763573 0.1261814 -0.16139387 0.09590538 0.011711096 0.15065569 0.024175495 0.03830901 0.24585468 0.110469185 0.18457983 0.25209552 0.20189391 -0.07143894 0.057596277 0.26906902 0.034253854 0.39530003 0.29469863 -0.11897637 -0.07984358 0.29853925 0.13133278 -0.073046595 0.2512915 0.2642794 0.1021081 0.25301924 0.45008266 -0.032282732 -0.03344371 -0.097997844 -0.15168937 0.0023360897 0.11939185 0.18712956 0.40653157 0.3734159 -0.43141806 -0.20133518 -0.0021539177 0.13288917 0.037245385 -0.17609875 -0.14552794 -0.13906224 -0.16530088 -0.048672386 0.09575834 -0.27504346 0.18340929 -0.03246939 -0.16731264 -0.12220595 -0.01176693 0.29029426 0.033451814 -0.26570824 0.000822152 -0.097229324 0.10621125 0.17843327 0.21723193 -0.04606238 0.37156653 0.304278 0.2054092 -0.28418016 0.01051411 -0.046463076 0.1735425 -0.07800242 0.2122896 0.12745085 0.28306955 -0.2617499 -0.0046475157 -0.16748726 0.03245656 -0.0805746 -0.16017574 -0.08051421 -0.0422587 -0.009030326 0.24638852 0.30791524 -0.102106296 0.1384152 -0.029397853 -0.16120408 0.08675092 -0.16884232 0.23315679 0.13064381 0.092941195 -0.35603765 -0.41947013 -0.13060308 0.043576214 0.36182073 -0.009710735 -0.16624145 -0.38644883 -0.25603822 0.1819812 -0.09625978 -0.05343076 -0.10523529 -0.29126728 0.02282187 0.07036292 0.07783176 -0.10194601 -0.08862463 -0.11529773 0.02826378 -0.071650065 -0.026718475 -0.2918778 -0.2231123 0.042319026 -0.14645113 -0.12512349 0.037108384 0.15712672 -0.046546254 -0.10509384 0.032764323 -0.038596347 -0.18668 -0.1377269 -0.06746864 0.17462309 0.22369619 0.2382985 0.0008640429 0.08114377 -0.037264325 -0.0011832109 -0.06832266 -0.09793186 -0.06022665 0.14233567 -0.045699302 -0.0013096874 0.062118888 0.0500374 0.27032924 0.29926118 0.22071488 0.26271495 0.08488808 0.06322478 -0.11818941 0.020072952 -0.17884597 0.2321416 -0.21841635 0.006437642 0.035183795 0.03077386 -0.20018733 -0.027822325 0.058847774 0.07977179 -0.10992289 -0.004050414 -0.11348888 -0.038726065 0.19157095 -0.18358895 0.06345726 -0.14371173 0.18560007 0.19730322 0.10291582 0.014191362 0.12098037 -0.090962745 0.23358564 -0.14042783 -0.018787239 -0.17751473 0.17142355 0.06227134 -0.10385802 0.11543268 0.14203602 -0.07619586 0.27015248 0.25258234 -0.1658521 -0.20086236 0.18842888 -0.32509452 -0.11353663 0.106102616 -0.067102335 -0.23852868 -0.048996978 0.16058159 -0.20025475 -0.17888921 -0.17435169 -0.03876668 0.2192829 -0.13619043 0.03707136 0.03395163 0.08579539 0.19906235 -0.10909942 0.18211013 0.22174704 0.070200816 -0.0037647437 -0.13503094 0.17473231 -0.15339443 -0.18117194 -0.21756463 -0.030841034 0.11267948 -0.11862449 -0.002354484 -0.09700373 0.16170937 -0.1538723 -0.07247696 0.14903301 -0.12883873 -0.13959035 -0.15814401 0.14656296 -0.100529104 0.01310367 -0.11688154 -0.010507138 0.0446498 0.10416984 0.28730914 0.085668474 -0.18880269 -0.0064763846 -0.16708536 0.036615457 0.17142303 0.2272796 -0.031255644 -0.12074029 0.078696065 0.0398726 0.25481784 -0.11730605 0.163791 -0.107580245 0.04556829 -0.08092221 -0.18646471 0.0037672222 0.11193331 -0.1674374 -0.01647336 -0.23137689 -0.10445386 -0.106279686 0.2524537 -0.2701416 -0.48343617 0.08728098 -0.0043124994 -0.17086649 -0.16736075 0.16099124 -0.30215827 -0.14863521 0.34571952 -0.0036895855 0.29693738 0.3357534 0.20681432 0.04241446 0.09287059 -0.15456314 0.06682281 0.26143983 -0.118768506 0.013041907 -0.22554131 0.10773007 -0.1883964 -0.076608494 -0.14894216 -0.26076105 -0.13699901 0.01646387 -0.05459898 -0.18884556 0.09125706 -0.07699822 0.013780894 0.006304073 -0.1501614 -0.17607474 0.12541385 0.04014869 0.09823598 -0.013243502 0.06847484 0.069613345 0.05370443 -0.12068092 0.094278574 0.089298576 0.08647669 0.15834971 0.0023421478 0.06609226 0.08752626 -0.06505111 -0.07048278 -0.07731403 -0.21178421 0.08893688 0.1829926 -0.0090271905 0.12685058 0.07048188 0.25723976 -0.021219112 -0.1488413 -0.046864033 0.08615372 -0.037744917 0.216576 0.1037948 -0.017656153 -0.15736243 -0.25870493 0.14272192 0.3012381 0.19937456 -0.16213575 -0.38794732 0.14710577 -0.0842146 -0.26101387 -0.05729571 -0.19840144 0.19170123 0.19928448 -0.08587753 -0.13771383 0.16922192 0.083507605 -0.28077063 -0.048983485 -0.27897546 -0.19654503 -0.12000305 0.0019277926 0.062170383 -0.040957235 -0.0480828 -0.15782902 -0.027974568 -0.18136932 0.19085109 0.18861263 -0.16553453 0.12565547 -0.019612705 0.0447977 0.07623437 -0.07697475 0.109579064 -0.12495464 0.23705539 0.0015447033 0.13703975 -0.12816203 0.055286657 -0.007814021 0.13153291 -0.15570189 0.16652459 0.09717197 0.21094182 -0.0675681 0.1641851 0.092342556 0.07310828 -0.060371432 -0.055527836 -0.24722894 -0.3749101 -0.2795298 0.07518114 0.12924962 0.18560576 0.052281857 -0.0054135197 0.22926062 0.05113128 0.036787782 -0.13022484 -0.1819683 0.05054551 0.22986297 0.10201771 0.124020785 0.14694689 -0.025729725 -0.10826045 -0.27109334 -0.11136169 -0.029634578 0.22697522 -0.05489696 0.07927144 -0.10554111 0.025463989 -0.17259185 0.052382067 -0.19142036 0.11656267 -0.022066206 0.2041055 -0.1164504 0.068041556 0.2996701 0.21869151 0.033707585 0.022647928 0.10840076 -0.09474434 0.22351342 -0.24415703 -0.03620523 -0.075055026 -0.08050666 0.004845119 -0.07699098 -0.113051966 -0.18945296 0.2778865 -0.07831818 -0.043757744 0.022524726 -0.7096277 -0.077606715 -0.15566003 0.26815456 -0.09796638 -0.5389754 -0.15806885 -0.11608917 -0.11148611 0.09289174 -0.18249759 -0.046857253 -0.5269522 -0.5033579 -0.3801212 0.11870926 -0.16044088 0.3845054 0.04500824 -0.06601073 0.18409313 0.1701356 0.28641275 0.20184135 0.21018788 0.22143203 0.03828813 -0.27580443 -0.010572166 0.18820164 -0.30870122 0.14561188 0.15413469 0.13947512 -0.0043260283 -0.21570759 -0.071393564 0.12849972 0.06636581 -0.13923222 -0.15822443 -0.22801316 0.23845935 0.060620233 -0.041892584 -0.21447174 -0.037057053 0.08540011 -0.2460196 0.18502562 0.24591427 0.25736976 -0.35766113 -0.6237415 -0.49004632 0.04020681 -0.03657346 0.121086635 0.09979115 0.115013994 0.14835295 0.20647769 0.19196522 0.07632004 0.091674365 0.32309026 -0.090473115 -0.26902264 -0.3434181 -0.2217929 0.02095421 -0.038962755 0.16637494 -0.25758004 0.029198738 -0.1700212 -0.095594324 0.051060423 -0.0023814773 -0.050562207 -0.03522502 0.04305419 -0.021890553 -0.0020459015 0.07421386 0.04310748 0.40750194 -0.25071535 -0.36995307 0.4251123 -0.63674223 -0.16366068 -0.18279877 -0.28430876 0.41237304 0.9750828 0.241746 -0.59473485 0.15463437 -0.5217958 -0.6247374 -0.4152335 0.23576455 0.57883674 -0.7537936 0.2550556 0.2974205 0.22001879 0.14940456 -0.45448577 -0.21719828 0.31536683 0.6550669 -0.3122513 -0.5751143 0.16463508 0.18630601 -0.33052373 -0.34418318 -0.26951963 0.66123617 0.10897597 0.5730501 -0.47089103 0.5418359 0.37344176 0.05107573 0.058189064 -0.08994481 0.24917877 0.017333893 -0.05640751 -0.06273275 -0.5228326 -0.5096393 -0.06795411 -0.13138686 0.50225925 -0.014101319 0.33946246 0.47631997 -0.4890382 -0.2608147 0.7165846 -0.5559585 0.11669998 0.65269333 0.54488087 -0.24117233 -0.06477597 -0.0774984 -0.13895059 -0.0046621463 -0.01626201 -0.13373318 0.6761461 -0.3987767 -0.05158127 -0.32338676 -0.29606077 -0.14473936 0.6942172 0.07386387 0.03703397 -0.34782386 -0.24508971 0.7570022 -0.31451318 0.095513396 0.60416764 -0.35140154 0.17567076 0.20413844 0.5899206 0.18007357 0.36974 0.020699345 -0.08164615 -0.36545137 -0.6798572 -0.27289343 -0.2986633 0.014347427 0.35912102 0.12661135 -0.04799756 0.41677228 0.088174306 0.11510096 0.13064192 -0.035559002 -0.6552469 -0.20169313 0.25180927 -0.3137789 0.6178975 0.18296836 -0.118126765 0.55937725 -0.45852673 0.23586859 0.340239 -0.09424842 0.36561844 -0.004598537 0.52333385 -0.21141866 -0.37681863 0.5242599 -0.016163358 0.30888134 0.42793548 0.21135624 0.3786057 0.6005907 0.50680614 0.07514687 0.38855934 0.12862347 0.10024325 -0.06796433 -0.16250367 -0.35708976 0.1444774 -0.11622231 -0.12094512 0.21877031 -0.098542854 0.2600149 0.42331803 -0.06344224 0.04889615 0.4562836 0.28810486 -0.06263126 0.2856888 -0.07648551 0.18892244 0.51746446 0.24315777 -0.08784651 -0.37260243 -0.0010589799 0.5901936 0.3781915 -0.5476338 -0.5550014 0.20444517 -0.32550794 -0.27588773 0.24229911 -0.2980176 0.21398251 -0.2344931 0.17580396 0.45675617 -0.32399583 0.54786867 -0.08625018 -0.19561918 -0.38023257 -0.26428068 0.44073522 0.32424992 -0.2986616 -0.061911665 -0.037282385 -0.17302774 0.19394457 -0.2136764 0.030593613 0.026878774 0.09446537 0.08501499 0.10318377 0.16462559 0.22369309 0.22664985 0.28569746 -0.1054187 -0.22057723 0.2823075 -0.15694292 -0.3670059 0.2240284 0.13372332 0.17863908 0.29705998 0.014036132 0.24467133 -0.1472463 0.21191974 -0.23694767 -0.01665909 0.44140756 0.21217057 -0.36251226 -0.42452458 -0.40583006 -0.64002633 -0.38314202 0.47824174 -0.24534057 -0.036349278 0.61905557 -0.07444579 -0.39469782 0.1010327 -0.5999832 0.049123656 -0.29421082 -0.38086873 -0.100847736 -0.13546835 -0.19254184 0.12937433 0.34412423 0.30883873 -0.37028393 0.07172444 -0.30045307 0.14843008 0.22674438 0.36962858 -0.02200708 0.21539694 0.10049024 -0.13383707 0.13388515 -0.22057962 -0.03799962 0.11453416 0.24878576 -0.050467864 -0.28158855 0.3049185 -0.11457783 0.19868238 -0.2613444 -0.16286546 -0.37522748 -0.30992338 0.12207494 0.33064207 -0.11355746 0.37650412 0.38852876 -0.18628123 -0.29954854 -0.3067622 -0.43574187 0.38831827 -0.12943071 -0.30597612 0.047655977 0.07022278 -0.22725847 -0.038171884 -0.021090789 -0.06614798 -0.37110534 -0.076464765 0.23164141 0.2873607 0.61305094 -0.19574049 0.09622724 -0.31559363 -0.21165445 0.33084014 0.385028 -0.006323093 0.20676926 0.15944073 -0.5345712 -0.36216775 -0.4946944 -0.3021836 0.26011342 -0.07896857 0.024752172 -0.3990357 0.06876609 -0.13657889 -0.15830685 0.3437607 0.22220945 0.022467224 0.3063079 -0.20812947 -0.19352783 -0.36460945 0.16497758 -0.21211196 -0.12099238 0.22657108 -0.24926242 -0.23812824 -0.06011778 0.3394043 -0.2818875 -0.00011700056 -0.1859723 0.22797053 -0.22358228 -0.07448362 -0.39806962 -0.46154368 0.023478763 0.08173233 0.2135609 0.2425938 0.066504076 0.15313493 -0.21385673 0.27954677 0.16452117 0.014150268 0.20072553 0.036196914 -0.37966552 -0.4685515 0.15285212 -0.050561488 0.052957404 -0.051235255 -0.02679579 -0.26431823 0.26940152 0.31848726 -0.051003482 0.21048225 0.05340206 -0.061857637 0.22667396 0.23434785 0.281281 -0.15778975 -0.10690993 -0.24139717 -0.32405245 -0.18305258 -0.3190769 -0.23144145 0.2765589 -0.046083312 0.159039 0.32758024 0.16059671 -0.32756898 -0.44561708 0.08122831 0.06445221 0.12177472 0.038720667 -0.46690053 -0.26004034 -0.4526124 0.004893513 -0.27616677 0.2868203 0.26439577 0.2987505 -0.5577522 -0.3850904 -0.0802906 -0.39059055 0.115028106 -0.021359682 0.10861916 0.071267806 0.15249528 0.12619703 0.050295684 0.5988901 0.20106772 0.5422029 0.3686849 0.504133 0.28495947 -0.29604372 0.13343412 0.029777559 -0.2919724 0.4124428 0.6354329 0.42106226 -0.8343329 -0.6932383 -0.50701195 -0.8263003 0.2968854 -0.5480345 0.11040909 -0.1275147 -0.23757274 -0.17960882 -0.30905935 -0.5126808 -0.4058205 -0.47835872 -0.5068521 -0.4692463 -0.20908515 0.12301496 1.3200313 0.42484248 -0.6203371 0.089405335 0.47740242 -0.5948613 -0.03770672 -0.49502906 0.13974172 -0.5069023 -0.397833 0.11623152 0.2337148 0.059010237 0.21889108 -0.04967189 0.80379695 0.48233435 -0.607999 0.2767304 -0.45211387 0.4714143 -0.44419268 0.34428456 -0.35991162 0.3881829 -0.15762536 0.37539628 0.18869182 -0.23689815 -0.3141537 0.0044047134 -0.17097643 -0.0672242 0.078049645 -0.19802822 0.006887352 -0.056604527 -0.023804523 -0.24899264 0.48262978 -0.53238314 0.2220938 -0.41122696 -0.19947414 0.5072783 0.5011599 0.038024925 0.56061864 -0.67745703 0.079408534 0.62734634 0.21871985 -0.12908874 0.29485747 -0.08427755 -0.31828353 0.42679924 0.06288706 0.23296401 -0.17463887 0.13046649 -0.5691871 -0.5791972 -0.38696602 -0.4740105 -0.2963426 0.6387798 0.39931524 -0.22795904 -0.298021 0.38994318 0.02469821 0.16644856 0.09923947 0.23534492 -0.14790186 0.012359627 -0.080082454 -0.31457245 -0.10084256 0.81007856 -0.506412 0.514637 0.7323496 0.5964481 0.017550651 -0.31918266 -0.19493121 -0.114964515 0.39505792 0.33976704 -0.1867878 0.101352386 0.026010698 -0.035741687 0.3875738 0.563945 -0.46515772 0.55602777 -0.26043737 0.0534396 0.17983285 -0.12785885 -0.062622376 0.11779965 -0.24056886 -0.07499576 0.24444029 -0.4508385 -0.32056338 0.38748455 -0.2085123 -0.25672245 0.46561742 0.11314601 0.6824017 -0.5102448 -0.36611298 0.017299315 0.17848414 0.17798926 -0.093876615 -0.5553713 -0.058995694 -0.36922616 -0.5157028 -0.50976974 -0.58392644 -0.25922927 0.46805406 0.37599424 -0.07619245 -0.46244845 0.101767294 -0.3982129 -0.38612765 -0.3746313 0.16817176 0.6213792 0.18330967 0.56252325 -0.0056426493 0.010984777 -0.58534896 0.06513402 0.50718045 -0.11563121 0.5378682 0.431512 0.32724205 -0.3977931 -0.43289307 -0.07109673 0.11337335 0.0998743 -0.31744748 -0.13537988 0.42140603 0.081611365 -0.026024573 0.46476582 -0.15866134 0.031663034 -0.11139436 -0.35959598 -0.17497729 0.16494954 0.26506233 0.22972809 0.32814288 -0.30463645 0.40868035 -0.16297613 -0.13649645 0.13969322 0.079620734 0.1400538 0.0224552 0.07435281 0.05588245 0.03292967 -0.42907476 0.06292759 -0.13654864 0.2745418 -0.34067377 -0.07276852 0.1448898 -0.17842005 0.07247467 0.08174503 0.46459177 0.47365814 -0.4124749 -0.16680802 0.27113602 0.35218123 -0.14359497 -0.12273844 0.19143957 -0.47226933 0.058213253 -0.052634206 -0.27997306 0.13309203 0.3311017 -0.42584574 -0.33741018 -0.050251488 0.4357773 0.053479083 -0.16834894 0.022438334 -0.44531608 -0.34567055 -0.24657208 0.083261006 -0.25181097 -0.14902146 -0.11893034 0.33538947 0.15649724 -0.3015646 0.1465094 0.11008688 0.3316567 -0.47594056 -0.27186126 0.110575326 -0.055366684 0.06959285 -0.20808156 0.3171897 0.3495157 0.473998 0.10000511 -0.01788049 0.100821026 -0.07009965 0.010074874 0.20411585 0.2736448 -0.113431476 -0.20661153 -0.11879644 -0.019426428 0.26434118 0.1377958 0.2759226 0.18836221 0.21557839 -0.04583285 -0.023904137 -0.18490374 0.11349944 0.21705134 0.19202809 -0.28196204 -0.3381148 0.06899705 -0.4132993 0.2028277 -0.24622951 0.13706201 0.23906912 0.32121465 0.2713834 0.7282287 -0.25710908 0.03782438 0.25858203 0.18524408 -0.26468092 -0.2352759 -0.23980986 0.34541765 0.31448284 0.071626805 -0.24059226 -0.34859315 -0.40731096 0.0006781233 0.63121814 0.38407937 0.39958584 0.15209688 0.13021636 0.52689224 -0.022096867 0.30649146 -0.1374089 0.37664887 0.08380619 0.035640463 0.13902424 0.057808872 0.09951555 -0.28853795 0.004532049 0.24515453 0.18725663 0.03742065 -0.06561208 0.039668147 -0.29033726 -0.36417583 -0.089935414 -0.16300207 -0.181353 0.4245671 0.09482572 -0.47690046 0.30445042 0.24762125 0.28708845 0.09931164 0.0038364725 0.31269258 0.21031371 -0.1601369 -0.3985044 0.17785469 -0.38648424 0.08305827 0.4196915 0.21270572 0.13222715 -0.13450436 -0.047189843 -0.081591986 -0.36734623 -0.5682971 -0.29916632 0.13904054 0.309496 0.38857523 0.0555512 0.34410307 -0.2636226 0.27752975 0.0962619 0.2592168 -0.22336596 -0.04218479 -0.21509299 -0.4651377 0.035018068 -0.29492965 0.264173 -0.013867948 0.1911886 0.3453 0.12750605 -0.071285054 -0.05549404 -0.21573536 0.091756135 0.21319906 0.06739719 0.099653214 0.022721043 -0.107514784 0.16462636 -0.10162948 -0.061052706 -0.035682477 -0.087873325 -0.060844503 -0.11363039 0.02632164 0.045274556 0.56754243 0.22799449 0.5861196 -0.26745448 0.015539665 -0.22096774 0.16894376 0.08500357 0.04390196 0.0027708379 0.10963077 -0.1661719 0.109259814 0.044305585 0.06664185 0.07237267 -0.14443804 0.07133333 0.026890442 0.029340327 0.11560017 0.052748445 -0.20573461 0.09370146 -0.07934191 -0.25162458 -0.22163114 -0.0026935095 0.22051017 -0.17391947 0.13935398 -0.12446297 0.21880984 0.02085107 0.21867159 0.18779598 0.121372685 -0.12897769 -0.11276107 -0.07512623 0.07575009 0.0076396265 -0.19640175 -0.10655695 0.03864155 0.23470834 0.31991264 0.21722965 -0.37008733 -0.3104479 0.0995821 0.07389048 0.022483261 -0.22092111 0.13538435 0.14369248 -0.26165628 -0.022685848 0.0657437 0.10069773 0.09484858 0.1578188 0.25384653 -0.20478517 -0.18679574 -0.01271773 -0.15558486 0.20509022 -0.07682275 -0.10525011 0.11617218 0.25455916 -0.22025578 -0.2104304 0.15318774 0.15722677 0.22368205 -0.14542387 0.13855623 0.0003634611 0.13106494 0.17327918 -0.0950169 -0.04178123 0.0072018593 -0.14941253 -0.058446884 -0.008503083 -0.075131506 0.048340134 0.14874853 0.0840511 0.0796473 0.22654623 0.24395363 0.101363294 0.036380764 -0.39351386 -0.08661856 -0.023834553 0.16551019 0.075408444 0.038318392 -0.25089023 -0.2595176 -0.07223888 0.19794413 0.24837415 -0.06381186 0.12422902 0.035818446 -0.16278242 0.0022223396 0.07768158 0.0910598 0.18185793 -0.027748171 0.11862127 -0.07392395 0.048742726 -0.14301528 0.05506228 -0.2060421 -0.06864014 -0.06391281 -0.13103816 -0.12387352 -0.21171978 0.09069868 0.14920972 -0.09753751 0.34311876 0.2258821 0.06406773 -0.009296604 -0.2968384 -0.5370541 -0.69159395 0.0024907452 -0.08381434 0.080746315 -0.17111409 0.0030771254 -0.06129875 0.45299503 0.46155804 0.58963126 -0.16038644 -0.23637927 -0.11963468 -0.39753485 -0.019798003 0.13049476 -0.1643209 -0.13193603 -0.067617156 -0.9478566 -0.5349804 0.12138837 0.09294671 -0.18402502 0.17658526 -0.021613495 -0.25532794 -0.29764187 0.26060206 0.011240658 0.14027724 -0.004940655 -0.3384711 0.1301995 0.008180527 0.10799595 0.014373013 -0.21003664 -0.171008 -0.22391136 0.00779181 -0.08717676 -0.2549869 0.21682142 0.15982467 -0.108086124 0.24088605 -0.13623184 -0.20041162 -0.017201647 0.19769497 -0.09965536 -0.123982824 0.093127035 -0.43619516 0.23707886 0.069602415 -0.059433743 -0.27128285 -0.26713905 -0.20368795 0.010934306 -0.18658851 -0.010190463 0.14163533 0.17272314 -0.16491972 -0.31247953 -0.0776706 0.04417938 0.26169667 0.24635386 0.08309251 -0.014950224 0.12705979 -0.14194301 -0.17443264 -0.32453966 -0.3165776 0.09408589 0.098341264 0.00044611626 0.058907066 0.035859518 -0.034138203 0.06772959 0.10682981 -0.034687817 -0.3747281 -0.19983816 -0.15233578 -0.18709092 -0.027300868 -0.11554942 0.11945736 0.18443494 0.12217498 0.100926936 -0.014741163 0.007389391 -0.22085844 -0.22465706 -0.49157462 -0.012771298 0.29402915 0.29944804 -0.097565286 0.050017253 -0.096324004 0.07988974 -0.048375875 0.33519584 0.23432274 0.084984586 0.1313319 0.10886933 -0.038362704 0.046027426 0.11432651 0.050834652 -0.11992325 -0.018743388 -0.14274141 -0.28138447 0.07504201 0.19377413 0.24106862 0.26213408 0.23795478 0.13225073 0.37610063 0.2718341 0.20169926 0.32631606 0.3626335 0.32656708 0.08043677 0.2785535 0.50906336 0.16882929 -0.040207576 0.16030312 0.054851692 -0.0035030465 0.03291216 0.11669598 0.22675009 -0.046337657 -0.08994992 0.19206734 0.24078107 0.19678591 0.14003672 0.03914625 -0.16191941 -0.120569564 -0.006916904 -0.09240285 -0.016493084 -0.39312738 -0.21022587 -0.014614416 -0.23999494 0.21491653 -0.03684831 -0.36976868 -0.084545985 0.107346 0.11159669 -0.04119206 0.15368621 -0.06862085 -0.22170162 0.008527908 0.05672912 -0.16627233 -0.3066925 -0.21628267 -0.059252355 -0.50341356 -0.3339324 0.09165975 0.18503843 0.11567909 0.15660498 0.35913596 0.0021513714 -0.19024424 0.09758716 -0.096823566 0.24799746 -0.08872476 -0.17979129 0.13680804 0.21703158 0.19710377 -0.4833918 -0.44169095 0.1849553 -0.44507208 -0.12737185 -0.043522753 0.017309293 -0.15782802 -0.19173555 0.028496597 -0.029295133 -0.025105827 0.09609488 -0.08764726 0.20483643 0.069964394 0.05063232 -0.14516093 -0.028444177 -0.050140295 -0.35619432 -0.15349044 0.068659276 -0.37830746 0.0129112 0.18784207 0.20335479 -0.09787551 -0.09401399 0.17514418 -0.028980743 -0.09645421 0.08726833 -0.08786362 -0.04117676 0.14117414 0.20319837 0.30118996 -0.11151915 0.14782442 -0.038990125 0.057859506 0.25408164 0.26638368 0.007595845 -0.14943708 -0.10569432 0.04061417 0.2610427 -0.10943123 0.094162054 -0.23120926 -0.3012265 0.021519018 0.038639814 0.096699856 0.09258984 -0.24653982 0.16654803 -0.17007539 0.11877252 0.046292998 0.032837592 -0.028736785 -0.1161446 0.036760617 0.18689278 -0.20209782 -0.024117813 0.21260838 0.27045125 0.037306942 -0.119986825 0.09597728 0.11877561 0.17610416 0.09718745 -0.058987267 0.15521096 -0.21918292 0.13939269 0.001547764 -0.1210754 -0.2372173 0.3845385 0.07422486 -0.19046012 0.13132842 0.25636852 0.10721526 0.33465403 -0.01944251 -0.21108429 0.021525664 0.117295325 -0.16358314 0.2819341 -0.14717108 -0.09197405 0.021506488 -0.30569622 -0.64304185 0.13637415 0.050247427 -0.17702648 -0.17358236 0.27581385 0.023821427 0.10280653 0.015246517 0.011084215 -0.156687 0.10209253 0.0032403194 0.15009333 -0.18671684 0.01027431 0.041753303 -0.08249671 -0.08743414 0.047241714 -0.03570873 -0.098573014 -0.0054881847 -0.1540263 -0.11748289 0.13394876 -0.041794755 -0.06971893 -0.17327693 -0.33395168 -0.097606786 0.064257674 0.18632858 0.0032215856 0.034312278 0.09530612 0.17885825 -0.0979485 0.13424484 -0.08434888 -0.050355684 -0.008989624 0.1587884 0.055517614 0.010730849 -0.28125164 0.43425995 0.16825165 0.33909142 0.15919946 -0.097402334 -0.20248339 -0.10374126 0.047270708 -0.20155971 0.023499178 -0.09725924 -0.10379024 -0.22631952 -0.20507595 -0.14928116 0.29439718 0.07704009 0.22267136 -0.20948742 0.15980351 0.092659086 -0.14525054 -0.36880463 -0.1819142 -0.019581715 -0.15652053 0.19032386 -0.24440369 -0.033167843 -0.010677606 0.06633711 0.18544343 0.21364988 0.2820107 0.085767746 0.12739539 0.273692 0.06787373 0.014767555 -0.07842747 0.2711665 0.06442746 -0.10231364 -0.27916723 -0.1744041 0.009694383 0.11691446 0.2440457 -0.18462874 -0.26527038 -0.40906566 -0.079560295 -0.09231101 0.029130654 0.17917089 0.00632911 0.078173816 -0.027587801 -0.09753085 -0.00014704317 -0.095662735 -0.109862536 -0.16398834 -0.06901621 -0.115439646 -0.06556242 0.22239925 0.035494 -0.19068432 0.13239346 0.21873663 0.5257153 -0.008233546 -0.12162209 -0.112494394 0.22524565 -0.020409182 -0.1329621 0.090726115 0.11080612 0.20427026 -0.0025695774 -0.11276595 -0.41890657 -0.031963076 -0.077157594 -0.10755019 -0.18157183 -0.05900573 0.11425589 0.12277138 -0.19091685 -0.067305855 0.0035309074 -0.09640399 0.049667392 -0.06638981 0.24090092 -0.24010073 0.16170982 -0.045614842 -0.035669547 0.13070618 0.08628373 0.3095914 0.095785 0.16295129 -0.010306691 0.16174659 -0.18275417 0.27394748 0.11336552 -0.12089323 0.23793039 0.25884372 0.2634781 0.015898786 -0.008593457 0.01786711 -0.044392098 0.033157475 -0.116238 0.1339922 0.07159244 0.13998526 0.14293158 -0.096409276 0.17686374 -0.03479073 0.030975072 -0.16764058 -0.10361983 -0.012712398 0.12051204 0.08048123 0.069508575 0.081897475 0.057709992 0.17105432 -0.01239663 0.036552843 -0.058035124 -0.4646272 -0.7880967 0.057282247 0.10056625 0.0022016768 0.048746675 -0.15763749 -0.071848676 0.15894933 -0.08373607 0.15306015 0.041009177 -0.30481666 -0.20735343 -0.268468 -0.13560636 -0.1911147 -0.0259428 0.17283341 0.12474065 0.3522768 -0.05889578 -0.17838563 -0.09847562 -0.19121203 -0.2723858 0.19069138 0.14930257 -0.19293411 -0.009999479 -0.22803947 -0.17597514 -0.016008284 0.0027379536 0.17695604 -0.1734171 0.04420745 -0.17696139 0.080498256 0.124496706 0.14436325 0.13498409 -0.04077278 0.10180131 -0.035453875 -0.1471363 -0.09430498 0.19437547 0.027797896 -0.000101242826 -0.012304615 0.28081748 0.26302516 0.12632044 -0.16395938 0.252134 -0.21862534 -0.25398523 -0.09012408 0.24841665 0.18531096 -0.1363315 0.12853917 0.16379467 -0.027375996 -0.3199161 -0.0012718498 0.0012882126 0.16802087 -0.13877657 -0.35148886 -0.034100402 0.22432837 -0.11487626 0.039275218 0.14979632 0.19616102 0.06685213 -0.26654065 -0.29041034 0.04407802 -0.037793063 -0.18215643 0.14761959 0.30120665 0.30449262 0.20490313 0.036349118 -0.13519052 -0.11671461 -0.14551504 -0.035797484 -0.059914462 -0.006929665 0.13107654 0.09890254 0.22014226 0.24940448 -0.05320617 0.045216408 -0.2741521 -0.10098096 -0.003651482 0.16694532 0.07901734 -0.114631355 -0.14816456 -0.016473353 -0.07587646 -0.05535093 0.21880572 -0.021579772 0.14308392 0.1452038 0.08197512 0.028453803 -0.12422074 0.024535116 -0.16821581 0.1458013 -0.10924626 0.10942379 0.19630133 -0.19208468 -0.122583 0.010278523 0.23590429 0.022336774 -0.07991364 -0.15585859 0.074255586 0.21754317 0.38306776 0.05279021 0.18951415 0.16577035 0.17579208 0.054209325 0.24601766 -0.09685447 0.27122867 0.048022013 0.17604488 0.0077183787 -0.11023034 0.023122901 -0.21889892 -0.17715889 -0.40539506 -0.06692647 0.04753485 0.041058853 -0.019959232 0.18982871 -0.19241045 0.058516644 -0.097010896 -0.09635447 0.26583514 0.18307929 0.33211264 0.17841628 -0.13912505 -0.1827435 -0.1024941 0.1740054 0.14967732 -0.035610463 0.16317171 0.06014742 -0.2178303 -0.12400322 -0.19087887 -0.019952819 -0.055596195 -0.14279641 -0.1791758 -0.12735216 0.22185254 0.028501539 0.37338153 0.1138456 0.18362415 0.08327634 -0.11074578 0.14527744 0.12706107 0.05849723 -0.12297831 -0.005695249 0.172369 0.09042105 -0.17811523 -0.104199976 -0.27108318 -0.24040103 0.015282574 0.15472667 -0.1093933 -0.13278474 -0.115819216 -0.09432934 -0.040376414 -0.062694356 0.12049286 0.0074886708 -0.09821022 0.114479356 0.1307007 0.07852084 0.1909804 -0.051251743 -0.102927834 0.0062325196 -0.065183386 0.12941341 0.08186215 -0.11853243 0.015480291 0.06900436 0.15995272 0.079929784 -0.11466794 0.087444805 0.13846353 -0.25487328 0.06691954 0.17093554 0.005303954 -0.29747555 0.106106855 -0.16235748 -0.018334255 0.014305825 0.035184864 -0.026095826 -0.11421245 -0.026152514 -0.19225283 0.30463293 0.26823366 -0.117072344 -0.075234726 -0.10640799 -0.13284534 -0.28441885 -0.1371456 -0.04267599 0.22373533 0.19344233 -0.16399075 -0.10214371 0.091161415 -0.000647698 -0.032790132 -0.23660028 -0.101550646 0.17046322 -0.042050492 0.23712662 0.19639821 0.2806723 -0.013305616 -0.09084181 -0.20848396 -0.30758762 -0.13006085 0.06410322 0.11033589 0.0034443648 0.11341241 0.054659456 0.0965382 0.12128437 0.15636168 0.3019613 -0.033983402 0.19246742 0.0028117648 -0.050877508 -0.0405859 -0.072918154 0.20012788 -0.035538677 -0.09258765 -0.068294235 0.090725355 -0.24027617 -0.14700311 -0.2267342 -0.055543806 -0.075685166 -0.11269365 0.020121703 0.1179939 0.033451058 -0.16024996 -0.14285833 0.20601612 0.13369796 0.06742175 0.10990448 -0.023382682 0.04406379 0.12420744 -0.03609225 0.032907013 0.18628596 -0.054727 -0.13950844 0.019855075 -0.0754705 -0.051434413 0.121877424 -0.003801863 -0.107207105 -0.07390687 0.11838158 -0.07929074 0.2094357 -0.11877245 -0.13586777 0.17141467 0.0023070062 0.15327053 0.12722331 -0.09829879 -0.0365395 0.20703234 -0.14007147 -0.05270146 0.0002752614 0.18097754 0.020421216 0.10549166 0.15617488 0.26651564 -0.06265812 -0.4216123 -0.38869527 -0.03284222 0.011534515 0.18283615 0.109429225 -0.32680666 0.32219803 0.012029092 0.17800756 -0.051959638 0.11352673 0.0148037225 -0.012159787 -0.05524333 -0.17857514 0.14317074 0.012308811 0.21206689 0.22566985 0.24453369 0.10027079 0.1849886 -0.13128161 -0.053966735 -0.24273376 -0.31809115 -0.08431453 -0.029467415 0.011544246 -0.33067098 -0.42501906 -0.121288516 -0.009494091 -0.13479161 0.1277073 0.22926132 0.32776007 0.10655543 0.033026457 -0.07304376 -0.101494856 0.018099733 0.029162943 0.05324449 0.035310466 0.2177062 0.04743319 -0.077371575 -0.19319008 -0.15155333 -0.029549336 -0.16826403 -0.1011497 -0.1254068 0.13055584 -0.033669185 -0.17009655 0.11523133 0.30688778 -0.40384042 -0.1476882 0.02921522 -0.09984357 -0.1555265 -0.42156667 -0.0047427383 -0.004587389 0.06440955 0.015329889 0.20855129 0.16680968 0.08475086 0.13670845 -0.00230878 0.30638066 0.15089263 0.022602031 0.35096014 -0.06633814 -0.15941928 0.27402943 0.026366932 -0.018593961 0.017602958 0.21380046 0.047044184 -0.16947547 0.06833872 -0.12702757 -0.1501539 -0.17175613 0.10515044 0.13105261 0.16608544 -0.16988613 -0.25532377 0.07935453 0.027748711 0.011563706 0.18864399 0.032138754 -0.20617115 0.16485761 0.0901778 0.089914344 -0.16511104 -0.11593153 0.018210484 -0.06436495 0.14997223 0.24484338 -0.06255047 -0.0072891037 -0.15752853 -0.19154307 0.01930552 0.01067734 0.15685992 -0.14155985 -0.08416282 -0.12916645 -0.15357824 0.013900467 -0.010870542 0.182094 -0.15780553 0.1941739 -0.002372477 -0.28045827 0.098728314 0.34127355 0.13612948 -0.10096081 0.13543236 -0.014387916 0.024138605 0.19860457 0.21830916 0.1895217 0.17338125 -0.3249969 -0.29385692 0.0287447 -0.03852139 -0.030789644 -0.0117207095 0.008351021 0.2105737 -0.08499366 -0.122784205 0.06550307 0.0061735217 -0.3293786 0.08619039 0.031039013 0.08369647 0.014521716 -0.15319598 0.12133967 0.33283046 0.2298714 -0.02937922 -0.040063273 0.09588007 -0.073007904 -0.45135272 -0.39769086 -0.042852603 0.052016813 0.16191024 0.079071 -0.07793334 -0.20910609 0.20244826 0.0678386 -0.18156046 -0.09942326 -0.1593015 -0.4905339 0.13659212 0.03606461 0.16965203 -0.13524276 0.20671721 0.038472503 -0.18484652 -0.17842856 0.18908682 -0.067238055 -0.09472627 -0.100959 0.16045956 0.0004104598 0.23603314 0.08771552 -0.05504032 0.1300906 -0.04512359 -0.08399991 -0.30415055 -0.119416974 0.15976676 0.3879534 -0.08614628 -0.12578078 -0.13158385 0.10768448 -0.218327 -0.32591912 -0.77686256 -0.17826597 -0.2136224 0.025108488 0.3199815 0.2230891 0.22908422 -0.12043635 -0.008458146 0.29217315 -0.39394262 -0.43831494 0.051888052 -0.0690893 -0.8334792 0.12285854 -0.017439095 -0.22260818 0.1295818 0.07541523 0.07059177 -0.02614668 0.11845521 0.2503744 0.107418925 -0.15816768 0.2215862 -0.3584038 -0.36498144 -0.31959704 0.27738708 0.32705104 0.048699968 -0.07780845 -0.10245711 0.037816815 0.23287031 0.12538983 0.18488696 -0.095759995 -0.19537456 -0.11597133 -0.010182614 0.009604414 -0.031017935 -0.023893556 0.0853242 -0.09970475 0.16378069 -0.05288262 0.043623492 -0.0030972664 0.08543719 -0.2561864 0.19953446 0.039337534 -0.04087944 0.044421334 0.005220945 -0.09261175 0.060032986 0.22216241 0.22574927 -0.015081796 0.1749553 0.14263244 0.16179506 0.1949238 -0.07822703 0.30596417 0.10927514 0.25441584 -0.08709199 0.004927396 -0.022586884 -0.07370484 -0.23005705 -0.056814305 0.16749457 -0.16145101 -0.12034739 -0.045363076 0.20081106 -0.15970765 -0.22173852 0.13928218 0.29792666 0.11219916 -0.16708174 0.17666638 -0.2171096 -0.1541142 -0.08485851 -0.07665846 0.13530591 -0.08745738 0.23996088 0.27931246 -0.029141814 -0.10931533 0.030039636 0.14244471 -0.21748406 -0.19714409 0.11765743 0.0024718333 -0.039429493 -0.020260625 0.021520523 -0.24664396 -0.20368177 0.22390905 0.24782266 0.19255634 -0.10532229 -0.20455232 -0.02658778 -0.069985084 0.08564611 -0.17826562 0.03910529 -0.12391153 0.024317978 -0.25719276 -0.30201977 -0.0032921664 -0.45940495 -0.33187735 -0.10429867 0.11423299 -0.14115366 0.1177711 0.07506988 0.119643256 -0.07769486 -0.1548744 -0.18057589 0.14427666 -0.12792291 0.26220724 0.19947317 0.19766031 0.2954309 0.14301264 -0.009327974 -0.0673776 0.005121534 -0.17092364 -0.11527924 0.0015524726 -0.07122008 0.12564975 -0.09934481 -0.08067929 0.050882127 -0.16458127 -0.008872956 0.07427713 0.31532124 0.31933862 0.35432416 0.07058189 -0.00017256977 0.19065677 -0.107422754 0.0925948 0.049945973 -0.11618905 0.07187394 0.052650377 -0.21116419 -0.06165641 -0.18188138 -0.16474733 0.17539386 -0.12528342 -0.12624776 -0.10735247 -0.23300569 -0.11874948 -0.111850016 0.09444953 0.17179438 -0.08101982 0.20259835 -0.02731548 -0.12397073 -0.06372888 0.14388533 0.27690238 -0.0043147765 -0.1076085 0.12123285 0.057520613 0.05847806 0.11278355 0.19671337 0.09927289 0.07615159 0.00873189 -0.0011223166 -0.16153564 0.16672912 0.13038248 0.1381021 -0.10558134 -0.18943453 0.13770157 0.3383092 0.24516043 0.0807583 0.10101369 0.17620328 -0.14012389 -0.17320293 -0.082982205 0.060081854 -0.10546851 -0.023742652 0.2563503 0.21280394 0.0645449 -0.22391258 0.076087214 -0.29357013 -0.14483757 0.007099938 0.069640994 0.042591456 -0.061777942 -0.0035343613 -0.035933577 0.11250559 -0.07773273 0.17395686 -0.15238686 -0.23655812 0.20369102 0.05959568 -0.17595384 0.09469796 -0.069549635 0.17286427 -0.06668409 -0.14379334 -0.11875687 0.08996788 -0.20204224 -0.058137257 0.02370806 0.15712273 0.03475762 0.07395055 -0.038203992 0.2000285 0.3053194 0.2821667 0.13659793 0.20138334 -0.045723006 0.046417244 -0.09883907 -0.085399315 0.05823907 0.14563008 -0.21499757 -0.049047396 0.1246499 -0.05221176 -0.0097964695 -0.071153104 -0.017591808 -0.34259212 0.08940303 0.19030055 -0.07645932 -0.08367937 -0.19421926 0.09639106 -0.055606224 -0.19947611 0.16429313 -0.1719824 0.01751689 0.32851803 -0.12748697 0.23635122 0.01679592 -0.07814039 0.19046699 -0.043695457 0.05721479 -0.005382282 -0.18424824 0.06523318 0.18472928 -0.15351644 0.1368777 0.15401624 0.10837917 -0.33158875 -0.12874624 -0.19218564 -0.082460925 -0.21340644 -0.29264888 -0.11064252 -0.25793707 -0.17557901 -0.09666748 0.020949332 -0.08637368 -0.04060083 0.13383853 -0.061928343 0.19857231 -0.09850093 0.058851838 0.013560465 0.18790893 -0.12118747 0.039580967 0.03766036 0.035962895 0.08587121 0.029446505 -0.020431435 0.100237764 0.16437465 -0.016508954 0.09744702 -0.1587194 0.21915908 0.07026177 0.053443894 -0.042322032 -0.11683326 -0.045553166 0.24030311 0.04220499 0.013101586 -0.11958419 0.03240271 0.22679484 0.1715136 0.14403526 0.21852408 -0.06876696 -0.07437883 0.20712455 -0.08631933 -0.07085241 0.06376009 -0.015327414 -0.038407255 -0.1486148 0.06700177 -0.011347274 -0.1978698 0.02062033 0.055961747 0.050546456 -0.12712735 0.0049438137 0.055634424 0.172762 0.16130517 -0.12176001 -0.06366984 0.07530196 -0.060136814 0.024507044 -0.011002768 0.044424213 -0.04513736 0.03977327 -0.060068175 -0.029001022 -0.22208439 -0.029223686 0.087944165 0.08665618 0.0068781776 -0.20326185 -0.033554472 -0.04766652 -0.6647782 -0.43367934 0.33712655 0.20231555 0.2709302 0.31858355 -0.5476292 0.17628594 -0.053691916 -0.18284243 0.035824038 -0.27952495 -0.13537525 -0.0913194 0.39267334 0.118123665 0.37831017 -0.23231225 -0.015104556 0.3046484 0.41892824 -1.067641 0.46120054 -0.24520311 0.30853435 0.28126395 -0.14012901 0.34063888 0.19717233 0.078203835 -0.088120714 -0.048624244 -0.597476 -0.031751227 0.1272479 -0.24052423 -0.24187297 0.119389854 0.22867927 0.45673275 -0.5982696 0.42012423 0.18196286 -0.45235783 -0.091482945 0.12901972 0.4562988 -0.123213686 0.31526884 0.0044328375 -0.16603693 0.046289656 0.49087447 0.5807553 0.18763675 0.23399067 0.35662386 0.40345407 -0.27883312 0.09252136 -0.029911172 0.18977784 -0.44340423 0.03274736 0.15841907 0.54759765 -0.07253538 0.12945448 -0.2698381 0.099435456 -0.25200933 0.50979817 -0.7112168 0.19515654 0.039630823 -0.34220573 -0.04289275 -0.17740852 -0.15152176 0.40120357 -0.15898462 -0.15903893 -0.3808986 -0.11779909 0.2691622 0.1651855 0.34181702 -0.69872427 -0.009064576 0.031403214 -0.21436737 -0.34077078 0.50864804 -0.040202677 -0.09577889 -0.43168664 -0.68117595 0.2480497 0.2253764 -0.16472173 0.55392724 0.31035414 0.41610876 -0.3887119 0.09627837 -0.1677025 0.3777056 -0.119231366 -0.3275598 0.12217573 0.21812576 -0.052942175 0.33376566 -0.39518085 -0.14650951 -0.057469957 -0.18454744 0.80469 0.2408366 -0.40819484 0.4926195 0.2358527 -0.16979547 0.0036768687 0.4248823 -0.28861502 0.21175729 -0.22276199 -0.4920261 -0.47449335 -0.13590805 -0.2756693 0.118461646 -0.054291338 0.10823063 0.012400586 0.11491185 0.2732293 -0.34813386 0.0067864745 0.022209762 0.009966794 -0.0967398 -0.06305838 0.3437338 0.0015054252 0.45590574 0.32024163 0.39189714 -0.76675177 0.21289624 0.6125368 -0.035236068 0.045619324 -0.07956092 0.53111404 -0.14042714 -0.07587607 0.15102504 -0.041035075 0.15942954 -0.028072815 0.44565943 -0.61812246 -0.77691865 -0.4803758 -0.47719762 0.4375422 -0.039778955 0.39161676 0.3794754 0.24222516 0.03210639 -0.2720956 -0.1484544 0.59992623 0.29177544 0.12050812 0.3667641 0.033931226 -0.05046033 0.4418433 -0.4589579 -0.5948406 -0.61099756 -0.31965277 0.271579 0.10867733 0.28036392 -0.38991 -0.56080145 0.4286745 0.23504359 0.5615921 -0.36855745 0.4014054 0.06801236 -0.3247092 0.008513137 -0.06761693 -0.268705 0.047953866 0.12293581 0.025658878 -0.14273062 0.1149237 -0.035416618 0.23368317 0.13130741 0.21328908 -0.34222475 0.047889907 -0.32295072 0.22161317 -0.3503077 -0.50243115 -0.029254628 -0.27116558 -0.16165629 0.13504699 0.293213 -0.0012576429 -0.2599786 -0.20749189 0.075174116 0.46444514 0.32463807 -0.16744232 -0.38019007 -0.4778256 -0.3582848 0.083457835 -0.5225656 0.015857365 0.41520807 0.24059002 -0.37089664 -0.1666145 -0.29555267 -0.36014837 0.038403653 -0.1551957 0.23961827 -0.16496515 0.22789976 1.0008652 0.095684685 -0.11282659 0.005286592 -0.4332663 -0.51749 -0.4580963 0.39987367 0.027159411 -0.108043 -0.08266055 -0.069979414 0.010054649 0.09485861 -0.035796683 -0.183668 0.0026044243 0.40739813 -0.2334123 0.42484984 0.3513469 -0.5467059 -0.24351028 0.13063875 0.10081924 0.61215335 0.36215958 -0.9540945 -0.41106844 0.34092718 0.15137267 0.11620548 0.040629327 -0.24682926 0.36076337 0.14604461 0.25917217 -0.11581441 0.067583844 0.10766084 -0.32549846 0.046851583 -0.06422536 0.20252945 0.22667108 0.24807727 0.2597386 0.015379633 0.27404842 -0.15020505 0.39306802 0.5316321 0.07619933 -0.18956694 0.30399933 -0.5915271 0.098506846 -0.30673212 0.5653081 0.029192718 -0.24576783 0.69997925 -0.26207495 0.17314458 -0.02569498 -0.32333604 0.095217116 0.4445688 0.31947985 -0.4247839 0.0035521484 0.21265665 -0.4260638 0.23598221 -0.44448268 -0.3060044 0.43512177 0.14281279 -0.21376444 -0.08136886 -0.050472878 -0.1814791 0.10689298 0.041157417 0.6859294 -0.023821713 0.1411027 0.19379523 0.35126355 -0.07043846 0.52612305 0.17282392 -0.18130517 0.38839862 -0.17942698 0.00026819343 -0.13056043 0.36588395 0.33267072 0.32508892 0.026282873 0.28495783 -0.03595001 -0.05610613 0.85996956 0.34183097 -0.17111407 0.39547697 -0.2081834 -0.021840397 -0.08641184 -0.13928567 0.1519484 0.22763081 -0.23293073 -0.9209126 0.014033049 0.4078623 0.27208066 0.019218737 -0.05477218 -0.23101695 -0.276505 -0.5715945 -0.23950873 0.4841218 0.074229166 0.053358827 -0.43690524 -0.2899503 -0.2711426 -0.09626514 -0.51957923 -0.110571265 0.060434166 0.2677005 -0.58252364 0.043930527 -0.6789419 0.09537608 0.27563137 0.17995268 -0.026878329 0.06800798 0.10271093 -0.06486979 0.06822035 0.6816844 0.28484583 0.25863603 0.5636097 -0.9383964 0.036556996 0.548433 0.16579801 0.100290366 -0.054771185 -0.36519933 0.3060883 0.12850793 -0.300406 -0.2931091 -0.195928 -0.03227444 -0.10260492 -0.36444202 -0.3635738 -0.37422162 0.44575384 -0.33624873 -0.74671817 0.21764329 -0.1722917 -0.2358509 -0.053052343 0.4319766 0.021616617 0.30146208 -0.12002244 0.8959786 -0.2589906 -0.26049456 0.11138646 -0.49563175 0.4144552 0.15488562 0.5578156 -0.05363716 0.408146 0.24286471 0.33852878 0.2203484 0.2994773 -0.21308726 0.6572912 -0.23219122 0.033710577 0.38385728 -0.055429447 -0.096304215 -0.768104 -0.2540175 0.09594471 -0.23849092 0.44726613 0.4057065 0.057997324 -0.14535166 -0.5007873 0.5803052 -0.11076355 0.08145252 0.46470964 -0.19649862 0.08436544 -0.15507701 -0.13073607 0.32556987 -0.06724814 0.599854 -0.39202848 -0.04029025 0.31838498 0.42195153 0.4395314 0.26867905 -0.16795105 -0.19260882 0.44871613 0.29535145 0.16073835 0.15890247 0.7962722 0.009290707 -0.11435215 0.057089146 0.15504766 -0.11739676 0.038750317 -0.36377332 -0.2820587 0.08447882 -0.17472632 -0.60980374 0.5557295 0.11559438 -0.18242249 0.37847337 0.005489235 0.106591545 -0.1845845 -0.5184788 -0.35966763 0.36289096 -0.008101599 0.16445869 0.39371958 -0.012845002 0.04445139 0.14740165 -0.18874088 0.29937345 -0.29420593 0.36932564 0.010035382 0.3466776 -0.20169419 0.023309054 -0.350687 0.1058551 0.004277783 0.23149164 -0.0799659 0.05027117 0.002475986 -0.04041455 -0.0145559 0.08397816 0.039634217 0.016113818 0.16605128 -0.09631301 0.18465154 -0.21290064 -0.10098008 0.103654824 0.45702896 0.23378941 0.402496 0.3769256 0.25824353 0.36904952 0.00073632697 -0.2537073 0.3831398 0.2168241 0.07066065 -0.42023778 0.14904341 0.12306497 0.23054054 0.17907229 0.019078925 0.10482997 0.24391341 0.049614288 0.075291745 0.26701054 0.23169416 0.09092403 0.2741488 0.08499653 -0.21750061 -0.31897873 0.05090785 0.2702513 -0.32979035 -0.1566755 0.005388308 -0.18523039 0.19616854 0.14809473 -0.21523795 0.31318244 -0.29386416 0.23811729 0.105914444 0.24523608 0.06368922 -0.030172624 -0.21447998 0.26789388 -0.094161935 0.022375992 0.25401813 -0.41190785 -0.38342094 -0.27816346 -0.2298003 -0.08788253 0.31640363 -0.13100119 -0.22971775 -0.36896706 -0.2157606 -0.12644164 0.21576884 -0.18560019 -0.104488425 -0.23699862 -0.33845583 -0.41667303 -0.05599883 0.15111835 0.35859475 0.050103843 -0.15204929 -0.10477619 -0.14165111 -0.08414265 0.25377953 -0.35178205 0.20787439 0.11791269 0.26749945 -0.048032105 0.2537776 -0.028946564 0.068026856 0.040782433 0.21879435 0.28483108 -0.31804833 -0.34133598 0.22883236 -0.11127901 -0.32638323 0.056081064 0.22595127 0.1329593 -0.1749295 0.19599764 -0.23392656 0.19207834 -0.12095843 0.2551655 0.13751362 0.29976586 -0.18453608 0.28330532 0.09794443 -0.08114215 -0.24834318 0.2945538 -0.20161581 -0.08670757 -0.32258227 -0.20063134 -0.06566073 -0.23476137 -0.2810809 0.31656098 -0.6275772 0.30868164 0.22703433 -0.5612284 -0.22483832 -0.5319179 0.058566514 0.14456849 0.26623785 -0.21796004 -0.1951079 -0.041612357 -0.25573888 0.00955526 0.029810954 0.10070279 0.019357355 0.18199651 0.25413924 -0.1528505 -0.26408216 0.088911496 -0.3468221 0.26045266 0.21534587 0.054242186 0.10460391 0.006495556 0.056286417 -0.101431385 0.48383266 -0.6130307 -0.60256106 -0.0026183843 -0.121546835 0.052829396 -0.53003746 -0.24043897 0.10346952 0.08914511 0.66254014 0.26078585 0.20655963 -0.017725576 -0.27974415 0.32146534 0.14452168 0.075075254 -0.084929846 -0.40508878 -0.028239405 0.2205166 0.20898952 0.38267744 0.4261169 0.11921086 -0.12843998 -0.2131756 -0.24049515 -0.27468365 0.28125003 0.23625052 0.34405676 0.33830386 0.096644446 -0.17142783 0.08847052 0.106218174 -0.26840407 -0.35843998 -0.05367254 -0.10810936 -0.019604942 0.09917383 0.044719268 0.09743 0.10621808 0.15465926 0.12622626 -0.14719774 -0.0029565347 -0.04858984 0.27202678 -0.022537295 -0.239242 -0.09137055 0.2500857 0.26722723 -0.21903624 -0.21371087 -0.23675846 -0.015638765 0.26939982 -0.02458103 0.08144189 0.1029011 -0.073553994 0.24888887 0.05030193 -0.049564943 -0.1488675 0.04537962 0.2696154 -0.34068376 0.19455719 -0.1776397 -0.07672312 0.08371106 -0.26379853 -0.21016991 0.11200773 0.24824245 -0.25487044 -0.14670044 0.075596586 0.27989146 -0.17268 0.2506397 0.19887121 -0.27021313 -0.12522238 -0.09082906 0.36114463 0.21465681 -0.108199365 -0.21679819 0.041705716 0.21188062 -0.19982004 0.21060307 -0.050164543 -0.4118145 -0.105089985 0.12282046 0.23842385 -0.2813632 0.08011887 0.2621709 -0.16408573 -0.08244831 0.056281038 0.16074225 0.17818406 0.19325005 -0.084447846 -0.022723697 0.1604492 -0.080311865 0.15475297 0.027284028 -0.016098192 0.0018595492 -0.017065756 -0.17569181 0.30826932 0.077182084 -0.13332663 0.083525285 -0.10190776 -0.045035362 -0.1703533 0.19431546 -0.17712109 0.045860313 -0.25839943 0.053683437 -0.10177415 0.13015169 -0.1414937 0.23960933 -0.09229909 0.32873762 0.39539942 -0.082795344 0.007692007 -0.016138187 -0.17319928 0.23130813 0.05741257 0.09927831 0.0046449173 0.000573937 0.016326819 -0.25398806 0.3010715 0.079692796 0.2870023 0.3293432 0.076228246 2.3321296e-05 -0.07273714 0.09216666 0.08850075 -0.1718128 -0.12947544 0.022232322 0.23486657 0.34604537 -0.26140574 -0.11900302 0.2405346 0.21548067 -0.082679726 -0.25150865 -0.15054718 0.06152077 0.18919161 0.21481493 0.2971299 0.10841119 0.40755272 0.019179428 -0.42906004 0.01762539 -0.054463774 -0.19793847 0.067177266 -0.3596404 -0.32111192 -0.30270252 -0.14764886 0.0021426205 0.28683004 0.120149806 0.23371783 -0.23981017 -0.27719557 -0.17461108 -0.14897566 -0.099613264 0.19474249 -0.13544868 0.28048894 0.18330763 0.40884826 0.28805098 0.34270623 -0.15894729 0.03971213 -0.17270096 -0.08718318 0.13706358 0.2762623 0.028103042 0.147332 0.31123996 -0.1160346 0.16693649 -0.04989333 0.10694231 0.07323061 -0.096810654 0.09992729 0.14698486 -0.20370632 -0.011733292 -0.06315044 0.018127963 -0.03260451 -0.1627859 0.29969588 -0.17693467 0.065295525 -0.041799825 0.1763892 -0.2598748 0.21651712 0.16389862 0.18942054 0.12504375 -0.25956327 -0.035413146 -0.2291895 0.15824004 0.35655737 -0.064080924 -0.14886265 -0.0940088 0.120512255 0.13883704 -0.20815398 -0.0208754 -0.09524147 0.29727435 0.2833535 0.058831394 0.19750091 0.1281004 0.1952592 -0.17837422 0.09773655 0.20016941 0.31665915 -0.06986202 -0.2299395 0.03707701 0.15578565 0.0063757026 0.067477934 -0.22993506 0.074343376 -0.017505692 -0.105168045 0.10138659 0.0840448 0.19326906 0.011551918 0.2652761 -0.10528685 0.11788404 -0.09358869 0.09785233 0.15941998 0.04324045 0.00937653 -0.21920142 -0.14358422 -0.15324964 0.03632292 0.009249049 -0.23683414 -0.08555841 -0.28038594 -0.0424336 0.19552507 -0.011025354 0.11731853 -0.076297596 -0.1818834 -0.008069002 -0.2799282 0.100349195 -0.12111007 -0.27008188 0.0815274 -0.040929027 0.06524725 0.027235044 -0.14376304 -0.059372358 0.13153799 0.041046344 -0.1730955 -0.0835333 -0.26079765 -0.21970034 -0.113902576 -0.18768357 -0.21968712 0.033453006 -0.14271033 0.12847877 0.1809029 -0.33748883 -0.30272245 -0.34585965 -0.23219381 -0.11399465 -0.12961258 -0.053373702 0.0056721726 -0.023174068 0.035195757 -0.12339342 0.18008551 -0.18793125 -0.31463292 -0.63396764 0.016464341 0.17876321 0.097403124 0.3259148 0.20021059 0.009399708 -0.14461596 -0.09455357 -0.20068297 -0.26870757 0.40813708 0.18994926 -0.13802311 -0.346955 -0.45350626 -0.48485515 -0.046492856 -0.10494128 -0.31154594 0.15257575 0.103295915 -0.31743124 0.06612085 -0.07843728 -0.08016912 -0.13772936 0.022849979 0.008395485 -0.18241957 -0.013866416 0.07794473 0.124089316 0.036177468 0.085184805 0.06409566 -0.035531763 -0.0378213 -0.007872078 -0.07402059 0.24814656 -0.2899803 -0.022092158 0.02999429 0.01109377 0.07305842 0.27686322 -0.17771296 -0.20709388 -0.15360962 -0.24152355 -0.09668821 0.19434544 -0.40800065 0.0075924406 -0.15945493 -0.12068806 -0.1835984 -0.025836956 0.1304652 -0.08378713 0.07524596 0.010506167 0.15952413 0.033241574 -0.20285243 -0.21551299 0.15240242 -0.16516382 -0.1809475 0.0075680125 -0.022470377 -0.015272633 0.013389281 0.06037695 0.0095733935 0.09651369 0.049331233 0.053842224 -0.23454876 -0.088602476 -0.24428892 -0.271589 0.13836333 0.053056087 0.22510323 0.06202661 -0.10481417 -0.39988974 -0.34401658 0.08402196 0.049375597 0.11067932 0.05371253 -0.19358358 -0.25680715 -0.20457105 -0.011496229 0.08460887 0.010502091 0.25914815 -0.019300977 -0.010764502 -0.21677591 -0.15373336 0.12626714 0.21007292 -0.04701268 0.20838097 -0.28775722 -0.18252398 -0.30639246 -0.22096074 -0.07849192 -0.015288 0.448069 -0.042548057 0.23234054 0.038149517 0.29443556 0.13850445 0.26026866 0.2161365 -0.013417071 0.091530874 0.02660944 0.010889497 0.12095605 0.15631245 -0.23044947 -0.26924405 0.18971704 0.25912395 -0.14548591 0.08022813 -0.3254573 -0.1602627 0.24783568 -0.055293784 -0.20484576 -0.06211445 0.14740512 0.086960025 0.07527429 0.17671083 -0.06675629 0.09208609 -0.13132438 0.04116588 0.066185184 0.45083815 0.21182156 -0.25249168 -0.25907883 -0.091135725 0.0007096565 -0.05088258 -0.06878524 0.11432879 0.119756065 0.10312173 -0.21471949 -0.06368859 0.15843093 0.1405997 0.067781135 0.123979725 0.0020140144 -0.3720559 -0.21010658 0.34843665 0.65248626 0.0059991945 -0.22417302 -0.13315454 0.08818539 -0.21346645 -0.110936314 0.05169983 0.101284236 0.123047866 0.08704002 -0.090098955 0.1063962 0.013761348 -0.036437914 -0.5627401 -0.19974498 0.16514881 0.09228482 0.36989436 -0.07629256 0.24662484 0.180898 0.03472329 0.048265364 -0.18398067 -0.019497132 -0.019966433 -0.10415481 -0.5285868 -0.1157555 0.044680726 -0.14565054 0.38990542 0.71339667 0.65766305 -0.16375019 -0.16966672 -0.24756555 0.03610545 0.04523339 -0.13107601 0.072764814 -0.10170955 -0.20107354 -0.20589732 0.2718023 -0.00023637306 -0.057040997 -0.030012095 -0.020530064 0.18074365 0.2980728 0.12298173 0.25162178 0.41593036 0.3314852 -0.06848003 0.10332901 0.08871805 0.16246319 -0.09713937 0.122036174 0.042667195 0.09635616 -0.3913915 -0.27486822 0.18136504 0.13639827 0.058644176 0.2096641 0.12558116 0.1915238 0.09678863 0.13994627 -0.028794596 -0.0028694945 -0.08340204 -0.03658671 -0.1496112 0.16103041 -0.07018602 0.03727134 0.04115652 -0.027704328 -0.00094645616 0.0544632 0.52071124 0.28345054 0.20966275 -0.06494425 -0.32287467 0.22252697 0.21175544 0.2539661 -0.16571061 0.0005740988 0.22342326 0.074911885 0.20916414 0.09872259 -0.15865587 -0.1252881 0.11335487 0.21260774 0.009443302 -0.047700517 0.15167975 0.17435177 -0.11424686 -0.0149458 -0.22941026 -0.033211473 0.120456874 0.16666149 -0.0527775 0.25771615 -0.11627623 0.22615671 -0.049325857 0.21564361 0.23757127 0.068682075 0.050645232 -0.08458556 -0.038855467 -0.19105217 -0.30898613 -0.32550538 -0.2996987 0.0031772673 -0.015597543 -0.24565104 -0.15026075 -0.278013 0.031190835 -0.09283313 -0.011355465 -0.034981806 -0.08105682 -0.0028766706 0.16404651 0.13120517 0.092379786 -0.16699754 0.06267583 -0.045229014 -0.21257538 -0.09515386 0.07663756 -0.14809136 -0.17665377 0.07349074 -0.23359975 -0.25379065 0.31039473 0.08867755 -0.09160514 0.051131446 0.15233566 -0.12210288 -0.110816866 0.2568734 -0.053388324 0.059228785 -0.22804272 -0.061769497 -0.14121789 -0.2591622 0.1638942 0.14763868 0.14107963 0.23280843 0.16946435 0.09805691 -0.213066 -0.22729619 0.121364094 -0.11760437 0.16377719 -0.22661269 -0.2526957 0.17857999 0.31130382 0.17565843 0.19051513 -0.16384915 -0.12484623 -0.20131943 -0.24252145 0.0652903 -0.10902551 0.025487052 -0.10890661 0.005557242 -0.13932438 -0.06004703 0.47909108 0.20188782 0.23246741 -0.09853081 -0.14071503 -0.35349855 -0.119016565 0.09392264 -0.13691682 -0.048720118 0.17788464 0.17223038 0.23072654 0.25133422 -0.15313765 -0.0219553 0.17043318 0.07288033 -0.192918 -0.014086819 0.024525236 -0.28041092 -0.14267124 -0.18192361 0.052668676 -0.27941155 -0.3351746 -0.28197387 -0.35949636 -0.04398614 -0.05020035 -0.31088582 -0.07542539 0.19493957 -0.044834018 0.31267735 -0.057130717 0.040207107 0.1309931 0.1850131 -0.0655806 0.33076355 -0.48935452 -0.2784683 -0.20541692 0.048586644 0.26946655 -0.07201934 0.25201994 0.1702224 -0.08593551 -0.1708178 0.24919885 -0.19438553 -0.22536363 -0.20315345 -0.30758384 -0.19901231 -0.1446148 0.016869746 -0.14007989 0.053610776 -0.06560069 0.00035083972 -0.16971904 -0.07435835 -0.19997795 0.15943933 -0.18209709 -0.1035962 0.20042363 0.18853138 0.19041996 -0.08128424 0.1567286 -0.14433157 0.038122483 0.3380824 -0.04055059 0.13597827 -0.084198706 0.07483883 -0.037819516 -0.06758028 0.20757507 0.31233332 0.062157556 0.18088454 -0.2022593 -0.13849145 0.024840418 0.16333772 0.10703765 0.24595961 0.14490911 0.18607725 0.15605345 -0.20078367 0.27454293 0.39224532 -0.11261926 0.005916969 0.22750306 -0.07363685 0.14813027 -0.31889722 -0.24735147 -0.18531065 -0.0015530703 -0.10879181 0.025241222 0.17800167 0.09264947 -0.025910903 -0.23584253 -0.08942186 -0.05013985 -0.11944493 -0.084673785 0.06377001 -0.089361735 -0.06660606 -0.014770111 -0.10975721 0.06827221 0.058161005 -0.027286796 -0.010365183 0.448999 0.29385996 -0.32017264 -0.31869224 0.2133479 0.31257808 0.19867913 0.17808138 0.3003032 0.4741622 -0.23907283 -0.3174434 -0.07885145 -0.07462271 0.28888404 -0.42117065 0.14852335 0.39338773 -1.069699 -0.2052753 0.35581875 -0.11185764 0.009062555 -0.24485134 0.019837953 0.6371764 -0.3034169 0.06818162 0.027952263 -0.3918825 0.23573166 -0.29489586 0.14959328 0.044125017 -0.45913628 0.07555652 -0.34711328 0.3704392 -0.012171399 -0.40399757 -0.06690713 -0.17210509 -0.15246065 0.3717425 -0.4671645 0.19799924 -0.26244855 0.086966604 -0.08951607 0.006922404 0.14134547 0.056817703 -0.42304125 -0.01413985 0.019557845 0.5234877 -0.24990115 -0.2193057 0.058537602 0.2237353 -0.5623527 0.15544257 0.074799895 -0.007956596 -0.19940324 -0.13188596 0.024853392 -0.10617576 0.008400319 0.018450009 -0.041984763 -0.033547428 -0.2653869 -0.37157482 -0.02057489 0.2893394 -0.49824533 -0.084964335 -0.0128996475 0.28181687 0.09683063 0.052350976 0.62382406 0.02598905 -0.009680952 -0.21222088 -0.33932582 0.62294394 -0.4662303 -0.5776594 0.09018318 0.3463342 -0.42517206 0.09441761 0.40884456 0.40260068 0.20553622 0.011013405 -0.38273957 -0.04166353 0.15692818 -0.39088625 -0.45820066 -0.43907797 -0.065044746 -0.5500914 -0.33125836 -0.25782356 0.7025942 0.70935374 0.22637178 -0.23791541 -0.23536228 -0.07871831 0.5079914 -0.17039579 0.39791918 0.0050949496 -0.01506693 0.46936935 0.2385959 0.0053809867 0.593262 -0.02352499 -0.5101117 -0.37510914 -0.06298278 -0.12102987 0.121609926 -0.08540273 0.015864661 0.9390333 -0.3932715 -0.25109497 0.191875 -0.12741628 0.27619612 -0.3436317 -0.3671287 0.13010427 -0.26922077 0.9573053 -0.3607075 0.12756743 -0.36913332 0.100925855 -0.49722093 -0.21460941 -0.21552305 0.15190053 0.09763301 -0.101556696 0.73790413 -0.06801142 0.11858486 0.4282583 0.42182946 -0.37749475 -0.04499253 -0.44057673 -0.55286586 0.28822964 -0.34237576 0.2698438 -0.38258955 0.16647127 -0.11338423 -0.21048303 0.022343095 -0.21486226 -0.12017398 0.34865993 -0.080936655 0.5600541 -0.4356576 0.3406241 0.3474058 -0.42908373 0.106531486 0.28759217 0.16600502 -0.036757153 0.3121579 0.49142298 0.3561803 -0.3661277 0.24139336 0.10852499 0.16890468 -0.34780225 0.11152538 0.66448027 -0.018015673 0.24417353 0.14292386 0.026796931 -0.31112376 0.5017631 0.19575281 -0.5253253 -0.5143468 0.12190143 -0.2473877 -0.3128021 0.43820524 0.077643864 -0.4763712 -0.5086958 -0.23718627 -0.003142638 -0.5336026 -0.48210308 -0.17421512 0.2300508 -0.49068177 -0.18698162 -0.13222356 -0.35209185 -0.011722438 -0.35054532 0.43432015 -0.35545915 0.35934377 0.109698154 -0.3610549 -0.12709294 0.255143 -0.32384515 -0.32966954 -0.14479011 -0.097427905 0.36749712 -0.1449237 -0.17818858 -0.112082094 -0.353855 0.5098209 -0.446628 0.042323228 -0.115909725 -0.3280806 0.5471143 -0.407129 -0.24410067 0.23458546 0.34695038 0.34357592 -0.62060124 0.3783322 0.5611512 -0.5253625 0.28083244 0.18971235 0.175518 -0.015161019 -0.12674282 0.011697894 -0.0036269124 0.017552026 -0.041124087 -0.0050317193 0.06293414 -0.12650359 -0.26213402 0.02152586 0.14963208 -0.064105466 0.45296797 0.36446685 0.087604664 -0.3723738 -0.17481552 0.08512479 0.12771662 0.34257197 0.26585838 -0.19029558 0.14566332 -0.21020633 -0.007090105 0.35838786 -0.40553552 0.6419279 0.25029343 0.1722324 0.072928205 -0.3487653 0.17157316 -0.2627926 -0.8170604 0.14324348 0.17456779 0.23743084 -0.11879618 0.06684321 0.31982082 -0.37687412 0.39998534 -0.11226433 -0.5154417 -0.051209178 -0.24425535 -0.36153203 -0.20606655 0.22044209 -0.0099139465 -0.20015563 -0.3415703 -0.005159067 -0.7016206 -0.24522041 0.41248608 0.47336432 -0.059743326 0.24380949 -0.18006434 -0.37526447 -0.17095341 -0.6417454 0.055031035 -0.20893538 0.6123188 -0.17290138 0.15351465 0.18227577 0.3781648 -0.26342043 -0.29957268 -0.6588342 0.05577724 0.6809583 -0.5824301 -0.69321954 -0.012642397 -0.031797484 0.5851088 0.35529336 -0.4591516 0.030072844 -0.07171095 0.27506325 0.15004434 -0.22401004 0.23694728 -0.042187493 -0.314199 0.28568932 0.40672052 0.25251827 -0.4222594 -0.10701894 0.07029589 0.055106886 0.122765094 -0.42548156 0.31834897 -0.45370427 -0.16414452 0.27209878 -0.16386373 0.3718759 0.37868235 0.1467865 0.6930444 0.32871658 -0.072867095 -0.20935221 -0.0071171634 -0.1498569 -0.36682558 0.43629947 0.26317805 -0.3906308 0.78800637 0.25087023 0.36696136 -0.1028068 -0.3331239 0.20478413 0.17438932 -0.19463201 0.1347675 -0.52598137 0.43928838 -0.15717363 -0.5039185 0.684608 -0.27385634 -0.11780587 -0.382253 0.33589226 -0.251508 0.25529194 -0.30045152 0.29755813 1.0619566 -0.20823963 0.14788747 -0.377085 -0.31039906 -0.09908655 0.2704368 -0.40806255 -0.3362762 -0.18110952 0.24161305 0.20371379 0.25436658 -0.38444492 0.06893342 0.013590213 -0.497949 0.21716215 0.44843066 -0.1286451 0.6581451 -0.1567428 0.01570582 -0.33560076 0.031548925 -0.17218532 0.13297033 0.042179152 0.054387745 0.15935853 -0.23174815 -0.18406542 0.109332114 -0.032910455 -0.04659412 -0.12482231 0.19008853 -0.15285388 -0.3327658 -0.21545102 0.22541209 0.09967891 -0.3131407 -0.2686867 -0.28441787 -0.36025265 -0.084677435 0.24735644 -0.13052946 -0.09949022 -0.10166473 0.28581268 0.11566999 0.13649708 -0.2320426 0.021604896 -0.033174362 0.00086217554 -0.37635186 -0.07244354 0.11008068 0.1198113 -0.50061107 -0.4553334 -0.068875045 0.077495344 -0.21388549 0.10107226 -0.30286503 0.18048944 0.18608266 -0.11323355 -0.2235158 -0.23914231 -0.24772838 0.04457093 -0.2444166 0.11113754 -0.34126702 -0.15935679 0.12242499 0.046463087 0.29648596 0.1551839 -0.11268743 0.07709855 0.16815351 0.20262872 -0.06763822 -0.17248288 -0.44093874 -0.49418858 -0.4595036 -0.50087136 -0.14012283 0.041351564 0.3468477 0.11210353 -0.21226 0.115183406 0.118747614 0.20571439 0.19693041 0.28574437 -0.13740544 0.39802563 0.17632288 -0.2420599 0.018832361 0.23265004 0.14316614 0.6517934 0.3752387 0.39964926 0.27369595 0.1679328 0.45757103 0.0919705 -0.096701354 0.25238496 -0.013791922 -0.073514976 0.013696117 0.31122792 -0.031499375 0.079949535 -0.11546794 0.047230955 0.027167628 -0.034545533 -0.094669715 0.029072542 0.034930155 0.32955793 -0.26392984 -0.3339596 -0.08412145 -0.22745651 -0.24423546 -0.16071253 0.3442756 0.097126655 -0.34929094 -0.25753367 -0.41268516 -0.28422025 -0.3327604 -0.34265953 0.3136369 0.026092557 -0.36908484 -0.09602661 -0.070727594 0.036701683 0.03389264 0.14490019 0.30825672 -0.10604971 -0.23243684 -0.5189169 -0.52167946 -0.015373488 -0.5492041 0.09868976 0.07654646 0.24981824 -0.11089205 -0.20073919 -0.069981985 0.2654731 -0.29189745 0.2538215 -0.4637125 -0.30362812 -0.062061884 0.19451673 0.6159951 -0.2816094 -0.16574381 -0.26365304 -0.19877623 0.27212542 0.19329624 0.0034112649 -0.1987791 -0.4759945 -0.42249474 -0.19458422 0.26892987 0.3315733 0.46826082 0.43373758 0.36901787 -0.24810508 -0.48439372 -0.69187075 -0.5147642 0.4191987 -0.06081573 0.363531 0.60659415 -0.2967574 -0.12161969 -0.47886434 -0.27005827 0.19426262 -0.27584597 0.30411953 -0.2711744 -0.27932194 0.08151741 -0.037403814 0.16734779 -0.15236108 -0.043278504 0.24116898 -0.2821591 -0.3265582 -0.23313531 -0.06535484 0.43083575 0.23313466 -0.21449526 0.16673729 0.35870427 -0.3411849 0.09168918 0.18987653 -0.44495586 0.13367298 0.23942219 -0.084525906 0.50731677 0.51930505 -0.22466357 -0.07835557 0.008485015 -0.14950204 -0.30218208 -0.12723584 0.45269927 0.6155541 0.43413264 0.4613264 0.45730737 0.012865844 -0.07808643 -0.12844649 0.36262625 -0.1918035 0.15723982 -0.2649451 -0.3255043 0.26666415 -0.5852457 -0.13879755 0.08359685 0.24316469 -0.36665782 -0.17569795 0.14232957 -0.16999342 0.11766285 -0.3100249 0.041661404 0.18655702 -0.18310107 -0.39074194 -0.6271088 -0.24066293 0.47417796 0.22841367 0.15740423 -0.37405482 0.19802323 -0.1873835 0.4389016 0.12775071 -0.3264615 -0.08811371 -0.19302045 -0.20768525 -0.27807108 -0.043902252 0.19905467 -0.10785169 -0.24003002 0.053059094 -0.20105763 0.05694377 0.40338808 0.34169024 0.3939587 0.5081344 0.02439191 -0.22659592 0.20106116 0.24122548 -0.22739953 -0.38101873 -0.50365096 -0.10819275 -0.01510739 0.30869573 0.16911231 -0.018784469 -0.097799234 -0.0068012103 0.3882941 0.006136275 0.30001837 -0.054641552 -0.08839117 -0.43163854 -0.46086088 0.12536258 -0.04678709 0.20909633 0.12678103 0.25326368 -0.2005453 -0.022114247 -0.214925 -0.45902276 0.036670394 0.14331748 0.53199375 -0.029354706 0.053513665 0.013908628 0.08103033 0.11416222 0.021090033 0.18064633 0.017591499 -0.30298913 -0.3119895 0.25455534 0.15193635 0.055658415 -0.19930972 0.2968288 0.2864039 -0.07130555 0.068143204 -0.23580562 0.35133693 -0.17065679 -0.14162534 -0.12901288 -0.2557361 0.22976114 0.1455064 -0.27505016 0.15228087 0.06055126 -0.0007960203 -0.08284188 0.034451686 0.1277706 0.23965721 0.08237995 0.2409972 -0.14239769 -0.12720868 -0.17140388 -0.03373959 -0.26583052 -0.21809906 -0.13219784 -0.1908415 -0.28219122 -0.21108067 -0.11653588 0.11968879 0.071100086 -0.15526868 0.36493614 0.11753477 0.20320237 0.33547136 0.27162296 0.0097747855 0.03446224 0.16281842 0.06262164 -0.062135458 -0.26242915 0.13621068 0.21312805 0.040418345 -0.22976103 0.21938515 0.22513251 0.41779384 0.011801838 -0.2051941 -0.37169132 -0.1975102 0.005568776 -0.062299673 0.25922498 -0.27930546 0.051634554 -0.042316698 -0.23432149 0.077480085 0.07675317 0.34802637 0.07459442 0.108649164 -0.20932905 -0.19946244 -0.065305054 -0.29719168 -0.25283462 -0.1670583 -0.25006577 0.18393001 -0.047460664 -0.021593934 -0.14100678 -0.15795004 -0.29820725 -0.3204351 -0.43570745 -0.46178678 0.22966084 0.22558616 0.25349686 0.26547432 -0.036657996 -0.21555686 -0.16981243 0.071648635 0.28159198 0.30132437 -0.21014728 -0.09998701 0.31032768 -0.24147457 0.26742575 0.15394798 -0.28357893 -0.17379554 0.3358104 0.52310306 0.7760238 0.28001922 -0.026232207 -0.23596336 -0.20158988 0.44022527 0.27415046 0.3815863 0.28360438 0.16291843 -0.27130774 -0.03749719 -0.08699669 0.17660716 0.17471035 0.14183721 -0.014053811 -0.034884997 0.021970619 0.16790499 -0.23979257 -0.2790757 -0.22859369 -0.09229919 -0.18414004 0.40460128 0.029396756 0.07786759 0.17682551 -0.057566337 0.08782218 0.105558306 0.18496104 -0.22627267 -0.005764679 -0.2528614 0.16227913 0.2531047 0.16096155 0.22787286 0.36488584 -0.06647152 -0.08978298 -0.22546431 0.029734718 0.15095209 0.17686757 -0.06810174 0.35981452 0.07722786 0.10741074 -0.3009126 0.11094839 -0.11623971 -0.22762533 -0.011427614 0.12395193 -0.03678221 -0.12316305 -0.0038771334 -0.35182786 0.057595756 -0.19310996 -0.06650706 0.010051705 0.24061728 0.27431932 -0.051774774 0.18080676 -0.13442203 -0.15449145 0.1239654 0.07845893 -0.20902443 0.055951957 0.06335671 0.026602289 0.33185604 0.33329576 -0.1285008 0.11679303 0.5030354 0.29465374 0.6847763 0.2593753 -0.08456709 0.11744376 -0.14365673 0.06298689 0.2155108 -0.14223742 -0.014222772 -0.17951642 -0.20204222 -0.05701942 -0.5200948 -0.25545523 -0.29543632 -0.3262192 0.04243029 0.25062057 -0.14874357 -0.106360964 -0.0610595 0.061991762 0.16773088 0.2704691 0.21171817 0.020406611 0.08354553 -0.20932919 -0.11428317 -0.042400137 0.013473159 0.06421988 0.19128402 0.037184507 -0.047690503 -0.46136934 -0.16705765 0.2933027 -0.285351 -0.3855598 -0.56200063 -0.24742138 0.2311976 -0.22729646 -0.09684187 -0.33532906 -0.67624855 0.056910295 -0.037235405 0.2013841 0.1756578 0.23439392 0.124453306 0.011796162 -0.07563656 0.14069866 0.28779218 0.2894847 0.13354546 -0.08384898 -0.23510583 0.32087383 0.24745288 -0.20392413 -0.116065264 -0.21097031 -0.043994665 0.3759228 0.17927453 0.23338859 0.4344043 0.27524218 0.6940492 0.073379494 -0.053920634 0.16646817 -0.0060648215 -0.29392192 -0.19665559 -0.34229904 -0.17085868 -0.39838877 -0.2122937 -0.32405707 -0.21645527 0.21303204 -0.21708706 0.0692196 0.40205985 0.38359642 0.061851166 0.11455415 0.19610839 -0.078667775 0.09861933 0.13078591 0.31208497 -0.0015984051 0.30961406 0.02358882 0.013348882 -0.106972106 0.47763756 0.6699824 0.3813016 0.6140789 -0.080514096 0.6554807 0.6513189 0.44171894 0.26803336 0.3124081 -0.18877338 0.20038782 -0.27289963 0.29121688 0.09051321 0.28778195 -0.17808379 -0.19137914 -0.5540137 -0.44814864 0.08000079 0.06891953 -0.34053695 0.07007325 0.08974751 0.25187346 0.1560049 0.17372385 -0.2211305 0.07754849 0.16500533 0.08928858 -0.08086387 -0.34101862 -0.1734604 -0.110116825 -0.13022168 -0.043927867 -0.18377666 0.044398915 -0.0016014605 0.14044267 -0.058941957 0.0919227 -0.12570612 0.16635181 0.20103438 0.22566 0.25211835 -0.06352836 0.054335088 -0.17116578 0.17083523 0.008574646 -0.15608819 -0.18321525 0.35117602 0.33422303 0.35266927 0.065805666 0.2024704 -0.13864821 0.20009995 0.034869734 0.25867367 0.14216511 0.22116496 -0.05423588 0.21049859 0.332076 0.00699867 0.07800615 -0.25250244 -0.029826421 -0.28245294 -0.18095155 -0.25658286 -0.071032695 0.15591834 -0.1238629 0.16400073 0.18839629 -0.12816775 0.07514986 -0.28536135 -0.030622099 -0.13369976 0.118425176 0.26196912 0.022461403 0.086716406 0.52371216 0.3239358 0.28706777 0.18842158 0.39022985 0.15586865 0.093901336 0.08984169 -0.16684164 0.17439003 -0.0955797 0.24011073 0.2778572 -0.075073354 0.17112854 0.02717813 -0.19278908 -0.19884832 0.04406924 -0.20717384 0.023787681 -0.2023912 -0.14865972 -0.30876023 -0.16806956 0.028284835 -0.20343408 -0.11543381 0.5325026 0.3902178 0.20633847 0.002998986 0.1401415 0.065329604 0.050305206 -0.17797033 0.16195658 0.07660538 0.2192384 0.0015075008 0.20022488 0.36984184 -0.53116035 -0.2716685 -0.40191376 -0.40608025 -0.06870813 -0.094443835 -0.25276425 0.25443104 -0.05446738 0.20764078 0.060221195 -0.18819614 -0.04936259 0.13841878 -0.098193616 -0.006319011 -0.23138328 0.006659399 0.17488629 -0.16015492 0.08577653 -0.020172317 -0.032963578 -0.19629993 0.020662213 -0.12532796 -0.08791952 -0.28340864 -0.2164739 -0.113764234 -0.03115269 0.024011286 -0.15651813 -0.12059638 -0.086481154 0.06746305 0.06558047 0.098078094 -0.056472827 0.2694011 0.44497213 0.37214717 0.1791334 0.20540145 0.15032545 0.13669379 -0.05469041 0.03793762 0.37556982 -0.14816086 -0.14774644 0.0099633215 0.15538034 -0.051952243 0.058833603 -0.1792088 -0.14144401 -0.024670778 -0.040041912 0.3177711 0.03568491 0.1813763 0.25088894 -0.21286543 -0.017997494 -0.1640609 -0.06303862 0.13690917 0.049315527 0.08663968 0.35141972 0.27247298 -0.12560447 -0.075875305 0.059659846 0.21710332 0.18777286 0.19037391 -0.018004486 -0.11735645 -0.068306506 -0.09128765 -0.0018853777 -0.0014419658 -0.19870174 -0.16764551 -0.10521815 -0.2689708 -0.28700075 -0.18683933 -0.029204164 0.6498097 0.19524196 0.51416117 0.35021797 0.25024045 0.039936274 -0.1542759 0.4660147 0.3143791 0.25079858 0.2607365 0.3330331 0.39526662 0.13761407 0.13433273 0.2114026 -0.080365 -0.049843702 0.22371621 -0.1345208 -0.20976147 0.25486124 -0.047118876 0.30804455 0.18172152 0.03041943 0.30897754 -0.026347013 -0.035258587 -0.15998209 0.02846961 0.06690283 -0.19508886 -0.07817909 -0.12812577 0.23851065 0.16102996 -0.032950256 0.1738926 0.22396006 -0.015796864 0.27325168 0.17826357 -0.034940466 -0.028265446 0.03835732 0.038757678 0.1788609 0.17505781 -0.12794621 -0.04562368 0.1974278 0.19963813 0.18669671 -0.022417614 -0.18020132 -0.16138747 -0.07791401 0.097265325 0.11033486 0.03728578 -0.08667161 0.039581515 -0.29089376 -0.3556705 -0.2807528 -0.3000891 -0.2166044 0.0811971 0.42828897 -0.28514034 -0.15457961 0.028925002 -0.26185942 -0.21110684 -0.07339242 -0.16962998 0.06673801 -0.053228367 -0.05172536 -0.068413556 0.05726559 -0.130762 -0.32696497 -0.062284604 -0.2339502 -0.22706386 -0.14618155 0.08880187 -0.26848736 -0.30532905 -0.0117408 0.01661874 -0.017943796 0.20536593 0.1379618 -0.023329409 0.3039212 0.055347838 -0.05332238 0.07962605 -0.19951892 0.23479626 0.15865874 -0.015182063 0.059867628 -0.12412699 0.18568248 -0.0077313012 -0.13539053 0.086471565 -0.043371163 -0.09529756 -0.19914298 0.08895067 0.025321264 -0.074621744 -0.33062935 -0.35247925 -0.49377504 -0.44578156 -0.3521913 0.113859385 0.012260317 0.022965124 0.15203634 -0.34362954 0.13228159 0.08332191 0.30843583 -0.011810888 -0.25923595 0.07091046 0.002739628 -0.22033459 -0.31212413 -0.30777177 -0.36099392 -0.31296596 -0.25753233 0.23148105 0.08347921 0.100096285 -0.10242029 0.017571576 0.14774525 0.2451331 -0.046221267 -0.26264393 0.1545398 0.057607736 0.057024144 0.14421588 -0.07366201 -0.21575 -0.024295514 0.12613238 0.06962885 -0.1283728 -0.08379339 -0.3661092 0.0764056 -0.24026226 -0.13690782 -0.13063173 0.19478366 0.03448786 -0.13017544 0.18009982 0.011217873 -0.2519162 -0.18309335 0.035295807 -0.19881158 0.19134364 -0.06530616 -0.22448708 -0.24291869 0.1367996 -0.020132395 0.01555256 -0.23783892 -0.1573386 0.044687994 -0.10602625 0.10875421 -0.11858219 -0.20001474 0.2059166 -0.1927968 -0.023502477 -0.19812721 -0.17373769 0.22868401 0.18596824 -0.13947897 -0.6204736 -0.53928787 -0.11428916 0.15903908 0.05536132 -0.1652416 0.15597041 0.105713114 0.3638681 0.3307475 0.0081505105 0.17756873 -0.20086151 -0.30681005 -0.13185658 -0.13437618 -0.16964498 0.19086802 -0.06607282 -0.15126897 -0.23468085 -0.23354231 -0.33378524 -0.28408405 0.05433472 0.0940631 0.0702573 -0.27758485 -0.37749565 -0.35455844 -0.12637094 -0.07180257 0.09246833 0.008518827 0.54117405 -0.26965994 0.17032425 -0.2302226 0.06804705 -0.10094502 -0.37158656 -0.04326447 0.095190234 -0.24861683 0.12615098 -0.18919994 0.09325199 0.18518111 -0.07397964 -0.008284568 0.15591252 0.09014059 0.15979837 0.40434706 0.36125454 0.58244205 -0.13964789 0.004902689 -0.15827413 0.10177695 0.010328944 0.2454351 -0.113472976 0.08229328 0.21874397 -0.17412162 -0.44532883 0.115065455 -0.31915227 0.09955624 0.64005554 -0.11787042 -0.5890098 0.5144316 -0.01873487 -0.32866526 0.4153112 -0.33303967 0.30808732 0.46225482 -0.3909075 -0.5952063 0.20908156 0.37233314 0.15900019 -0.8605974 0.17554566 0.028324423 -0.04215384 -0.39310768 -0.08961437 -0.18190517 -0.0067488654 -0.13475 -0.19934978 0.11850365 -0.42849034 0.35179046 -0.19351031 0.3576231 0.00080476725 0.4198597 0.15441628 0.22170913 0.083151676 0.32962745 0.26800954 -0.36641178 -0.33323938 0.3751992 0.42258054 -0.26711124 -0.7033642 -0.24221769 0.23934999 0.25865158 -0.32723442 -0.68537647 0.51733154 -0.23703901 -0.37824616 -0.49275786 0.2548908 0.48287064 -0.40556765 -0.41133946 -0.2726036 0.055510305 -0.002793482 0.42587382 0.21469541 -0.6784542 -0.08100223 -0.25480154 -0.30435285 0.38419944 -0.25240928 -0.05853868 -0.2757609 -0.3253189 0.26468322 0.5197386 -0.38504148 -0.31648558 0.023719639 -0.2923087 -0.191875 -0.21753024 -0.06913134 0.36572033 0.1809826 -0.0047115814 -0.007146683 0.19450597 0.00922774 0.37180856 -0.65486807 -0.35746166 -1.086267 -0.2930817 0.10557884 -0.08167686 -0.05481661 0.07114745 -0.2831275 -0.17103049 0.4916045 0.11204702 -0.46549982 -0.13435225 -0.4132376 -0.5976368 0.24521689 0.3969553 -0.48344603 0.35275033 0.3341185 -0.19481863 0.02214806 0.054285023 -0.47711903 -0.51146 0.05546867 0.3212144 0.2810015 -0.55297357 0.4652612 0.24450886 -0.34781116 0.22350161 -0.2103408 -0.341374 0.42780578 0.08381932 -0.2967443 0.15064992 0.05716141 -0.036626026 -0.39276356 0.25930777 0.1767074 0.3030714 -0.079821914 0.38843754 0.3355451 -0.0045123096 -0.17628984 0.11489605 -0.27929777 0.25718954 -0.20283593 0.06528748 -0.5285001 0.02271652 -0.43988046 0.40525743 -0.13157359 0.3603945 -0.34006628 -0.71984035 -0.004430413 0.02907246 -0.07806095 0.45333204 -0.0024343831 -0.021367878 0.020989623 -0.13550493 0.13358174 